svm_type c_svc
kernel_type rbf
gamma 0.0714286
nr_class 2
total_sv 363
rho -0.479954
label 0 1
nr_sv 243 120
SV
1 1:15 2:12 3:4 4:3 5:0 6:0 7:0 8:0 9:0 10:0 11:0 12:0 13:2 14:2 
0.8663263800774695 1:16 2:11 3:5 4:5 5:0 6:0 7:11 8:6 9:0 10:0 11:0 12:0 13:0 14:0 
1 1:24 2:22 3:18 4:16 5:1 6:1 7:0 8:0 9:0 10:0 11:4 12:4 13:0 14:0 
1 1:19 2:14 3:5 4:5 5:0 6:0 7:0 8:0 9:0 10:0 11:0 12:0 13:0 14:0 
0.1726386141454036 1:42 2:28 3:33 4:24 5:4 6:2 7:0 8:0 9:0 10:0 11:0 12:0 13:5 14:2 
1 1:14 2:8 3:3 4:3 5:3 6:2 7:0 8:0 9:0 10:0 11:0 12:0 13:0 14:0 
0.8122698454086191 1:15 2:12 3:5 4:5 5:0 6:0 7:9 8:6 9:0 10:0 11:0 12:0 13:1 14:1 
0.9987960118239815 1:42 2:28 3:33 4:24 5:4 6:2 7:0 8:0 9:0 10:0 11:0 12:0 13:5 14:2 
0.9730628576619859 1:18 2:16 3:9 4:9 5:0 6:0 7:9 8:7 9:0 10:0 11:0 12:0 13:0 14:0 
1 1:20 2:15 3:7 4:6 5:0 6:0 7:9 8:6 9:2 10:1 11:0 12:0 13:0 14:0 
0.784074003425968 1:21 2:14 3:5 4:5 5:0 6:0 7:1 8:1 9:0 10:0 11:0 12:0 13:4 14:2 
0.8480161973323618 1:24 2:12 3:4 4:4 5:0 6:0 7:0 8:0 9:0 10:0 11:0 12:0 13:7 14:2 
1 1:25 2:17 3:9 4:8 5:0 6:0 7:0 8:0 9:1 10:1 11:0 12:0 13:4 14:3 
0.08766890900868947 1:15 2:12 3:5 4:5 5:0 6:0 7:0 8:0 9:5 10:5 11:0 12:0 13:0 14:0 
0.3353719978908491 1:13 2:11 3:5 4:5 5:0 6:0 7:1 8:1 9:6 10:4 11:0 12:0 13:0 14:0 
1 1:18 2:12 3:7 4:7 5:0 6:0 7:4 8:2 9:4 10:1 11:0 12:0 13:1 14:1 
1 1:15 2:14 3:4 4:4 5:0 6:0 7:0 8:0 9:7 10:6 11:1 12:1 13:1 14:1 
1 1:17 2:12 3:6 4:6 5:0 6:0 7:2 8:2 9:2 10:2 11:0 12:0 13:1 14:1 
0.7254823184337802 1:14 2:12 3:7 4:7 5:0 6:0 7:0 8:0 9:4 10:2 11:1 12:1 13:0 14:0 
1 1:13 2:7 3:4 4:4 5:0 6:0 7:0 8:0 9:0 10:0 11:0 12:0 13:0 14:0 
0.9675330099321664 1:15 2:14 3:8 4:8 5:0 6:0 7:3 8:2 9:2 10:2 11:0 12:0 13:1 14:1 
1 1:15 2:15 3:6 4:6 5:0 6:0 7:0 8:0 9:5 10:5 11:0 12:0 13:1 14:1 
0.1618239685606417 1:15 2:13 3:9 4:7 5:0 6:0 7:1 8:1 9:4 10:4 11:0 12:0 13:1 14:1 
0.2288032536792549 1:13 2:12 3:7 4:7 5:0 6:0 7:2 8:2 9:3 10:2 11:1 12:1 13:0 14:0 
1 1:19 2:16 3:8 4:8 5:0 6:0 7:11 8:8 9:0 10:0 11:0 12:0 13:0 14:0 
0.9665172267807361 1:12 2:10 3:5 4:5 5:1 6:1 7:4 8:3 9:2 10:1 11:0 12:0 13:0 14:0 
1 1:22 2:16 3:7 4:6 5:0 6:0 7:0 8:0 9:4 10:3 11:0 12:0 13:2 14:2 
0.6456085423836931 1:14 2:13 3:7 4:7 5:0 6:0 7:3 8:2 9:3 10:3 11:0 12:0 13:1 14:1 
0.9144999566262275 1:11 2:11 3:4 4:4 5:0 6:0 7:3 8:3 9:4 10:4 11:0 12:0 13:0 14:0 
0.4755055792506425 1:16 2:15 3:6 4:6 5:1 6:1 7:0 8:0 9:7 10:6 11:0 12:0 13:0 14:0 
0.07114938994418804 1:15 2:14 3:8 4:7 5:0 6:0 7:0 8:0 9:4 10:4 11:0 12:0 13:2 14:2 
0.25783086788564 1:14 2:11 3:5 4:5 5:0 6:0 7:5 8:2 9:3 10:3 11:0 12:0 13:1 14:1 
0.5932455586821042 1:14 2:13 3:5 4:5 5:0 6:0 7:0 8:0 9:4 10:3 11:0 12:0 13:2 14:2 
1 1:14 2:8 3:3 4:2 5:0 6:0 7:0 8:0 9:0 10:0 11:1 12:1 13:2 14:1 
1 1:13 2:10 3:3 4:3 5:0 6:0 7:1 8:1 9:3 10:3 11:0 12:0 13:3 14:1 
1 1:15 2:13 3:5 4:5 5:0 6:0 7:6 8:4 9:3 10:3 11:0 12:0 13:1 14:1 
0.4609380203156836 1:11 2:9 3:3 4:3 5:0 6:0 7:3 8:2 9:1 10:1 11:0 12:0 13:0 14:0 
0.2594798367115926 1:11 2:10 3:4 4:4 5:0 6:0 7:0 8:0 9:5 10:4 11:0 12:0 13:2 14:2 
1 1:12 2:11 3:6 4:6 5:0 6:0 7:0 8:0 9:0 10:0 11:1 12:1 13:0 14:0 
1 1:19 2:15 3:6 4:5 5:0 6:0 7:10 8:8 9:2 10:1 11:0 12:0 13:0 14:0 
0.5161677675523866 1:13 2:5 3:4 4:4 5:0 6:0 7:0 8:0 9:0 10:0 11:0 12:0 13:0 14:0 
1 1:24 2:22 3:18 4:16 5:1 6:1 7:0 8:0 9:0 10:0 11:4 12:4 13:0 14:0 
0.4068518282955683 1:17 2:15 3:6 4:6 5:0 6:0 7:0 8:0 9:9 10:7 11:0 12:0 13:0 14:0 
1 1:34 2:27 3:19 4:18 5:0 6:0 7:12 8:7 9:0 10:0 11:0 12:0 13:2 14:1 
1 1:23 2:18 3:13 4:11 5:2 6:2 7:5 8:2 9:1 10:1 11:0 12:0 13:1 14:1 
0.2002253338788756 1:13 2:11 3:4 4:4 5:0 6:0 7:0 8:0 9:0 10:0 11:0 12:0 13:2 14:2 
0.6058636928923066 1:12 2:10 3:3 4:3 5:2 6:2 7:0 8:0 9:0 10:0 11:0 12:0 13:2 14:2 
1 1:17 2:15 3:10 4:10 5:0 6:0 7:0 8:0 9:5 10:4 11:0 12:0 13:2 14:1 
1 1:17 2:10 3:2 4:2 5:0 6:0 7:0 8:0 9:3 10:3 11:0 12:0 13:0 14:0 
1 1:35 2:31 3:21 4:21 5:0 6:0 7:3 8:3 9:2 10:2 11:0 12:0 13:5 14:1 
1 1:19 2:14 3:10 4:8 5:0 6:0 7:0 8:0 9:5 10:5 11:0 12:0 13:0 14:0 
0.1989765279719527 1:13 2:11 3:3 4:3 5:0 6:0 7:0 8:0 9:0 10:0 11:0 12:0 13:2 14:2 
1 1:25 2:17 3:9 4:8 5:0 6:0 7:0 8:0 9:0 10:0 11:0 12:0 13:4 14:3 
0.7135309166962913 1:15 2:12 3:3 4:3 5:0 6:0 7:0 8:0 9:10 10:7 11:0 12:0 13:1 14:1 
1 1:24 2:18 3:10 4:8 5:2 6:1 7:9 8:7 9:2 10:1 11:0 12:0 13:0 14:0 
0.6334124784238468 1:18 2:14 3:10 4:9 5:0 6:0 7:0 8:0 9:4 10:2 11:0 12:0 13:3 14:2 
0.6181528076280983 1:15 2:12 3:2 4:2 5:0 6:0 7:0 8:0 9:0 10:0 11:0 12:0 13:2 14:2 
0.654401173548153 1:13 2:12 3:4 4:4 5:1 6:1 7:0 8:0 9:6 10:5 11:0 12:0 13:1 14:1 
0.2299670856690038 1:15 2:11 3:9 4:5 5:0 6:0 7:2 8:2 9:3 10:3 11:0 12:0 13:1 14:1 
0.5153600817694751 1:14 2:12 3:5 4:5 5:2 6:2 7:0 8:0 9:3 10:3 11:0 12:0 13:3 14:1 
0.6486922830712706 1:17 2:13 3:7 4:6 5:0 6:0 7:0 8:0 9:7 10:5 11:0 12:0 13:1 14:1 
0.9526542844794994 1:13 2:13 3:5 4:5 5:0 6:0 7:3 8:3 9:3 10:3 11:0 12:0 13:1 14:1 
1 1:25 2:19 3:19 4:17 5:0 6:0 7:0 8:0 9:0 10:0 11:3 12:1 13:0 14:0 
0.6460105030045689 1:16 2:11 3:4 4:4 5:0 6:0 7:1 8:1 9:3 10:3 11:0 12:0 13:4 14:1 
1 1:11 2:10 3:4 4:4 5:0 6:0 7:1 8:1 9:3 10:3 11:0 12:0 13:0 14:0 
1 1:12 2:7 3:3 4:3 5:0 6:0 7:1 8:1 9:1 10:1 11:0 12:0 13:0 14:0 
0.7170541839378622 1:12 2:7 3:3 4:3 5:0 6:0 7:1 8:1 9:0 10:0 11:1 12:1 13:0 14:0 
0.4760797220687163 1:33 2:3 3:0 4:0 5:0 6:0 7:0 8:0 9:0 10:0 11:0 12:0 13:21 14:2 
0.4701148346647434 1:28 2:3 3:0 4:0 5:0 6:0 7:0 8:0 9:0 10:0 11:0 12:0 13:18 14:2 
0.384858877688764 1:18 2:3 3:0 4:0 5:0 6:0 7:0 8:0 9:0 10:0 11:0 12:0 13:12 14:2 
0.2029001712596818 1:12 2:7 3:0 4:0 5:0 6:0 7:0 8:0 9:0 10:0 11:0 12:0 13:8 14:5 
0.4163620205213734 1:21 2:4 3:0 4:0 5:0 6:0 7:0 8:0 9:0 10:0 11:0 12:0 13:3 14:2 
0.3885195608643033 1:18 2:3 3:0 4:0 5:0 6:0 7:0 8:0 9:0 10:0 11:15 12:1 13:3 14:2 
0.3275134425194204 1:11 2:5 3:0 4:0 5:0 6:0 7:0 8:0 9:0 10:0 11:0 12:0 13:11 14:5 
0.4004413820805492 1:13 2:3 3:0 4:0 5:0 6:0 7:0 8:0 9:0 10:0 11:4 12:1 13:9 14:2 
0.4205616511140495 1:70 2:2 3:0 4:0 5:0 6:0 7:0 8:0 9:0 10:0 11:0 12:0 13:70 14:2 
0.3675199922428767 1:66 2:2 3:0 4:0 5:0 6:0 7:0 8:0 9:0 10:0 11:0 12:0 13:66 14:2 
0.5199931678286378 1:48 2:2 3:0 4:0 5:0 6:0 7:0 8:0 9:0 10:0 11:0 12:0 13:48 14:2 
0.5184743359208223 1:33 2:2 3:0 4:0 5:0 6:0 7:0 8:0 9:0 10:0 11:0 12:0 13:33 14:2 
0.2991167205839423 1:27 2:2 3:0 4:0 5:0 6:0 7:0 8:0 9:0 10:0 11:0 12:0 13:27 14:2 
0.2726782138097391 1:21 2:2 3:0 4:0 5:0 6:0 7:0 8:0 9:0 10:0 11:0 12:0 13:21 14:2 
0.08503185703386296 1:15 2:2 3:0 4:0 5:0 6:0 7:0 8:0 9:0 10:0 11:0 12:0 13:15 14:2 
0.5200591127276155 1:66 2:8 3:0 4:0 5:0 6:0 7:0 8:0 9:0 10:0 11:0 12:0 13:52 14:6 
0.2203194088748756 1:10 2:3 3:0 4:0 5:0 6:0 7:0 8:0 9:0 10:0 11:0 12:0 13:6 14:2 
0.4799261686294756 1:14 2:5 3:0 4:0 5:0 6:0 7:9 8:1 9:0 10:0 11:0 12:0 13:1 14:1 
0.5201129644523625 1:141 2:2 3:0 4:0 5:0 6:0 7:0 8:0 9:0 10:0 11:0 12:0 13:140 14:1 
0.4540965255279411 1:30 2:1 3:0 4:0 5:0 6:0 7:0 8:0 9:0 10:0 11:30 12:1 13:0 14:0 
0.26529000356622 1:25 2:2 3:0 4:0 5:0 6:0 7:0 8:0 9:0 10:0 11:24 12:1 13:0 14:0 
0.2960239437885918 1:23 2:2 3:0 4:0 5:0 6:0 7:0 8:0 9:0 10:0 11:22 12:1 13:0 14:0 
0.3909467104371029 1:18 2:2 3:0 4:0 5:0 6:0 7:0 8:0 9:0 10:0 11:17 12:1 13:0 14:0 
0.2241262059805635 1:69 2:2 3:0 4:0 5:0 6:0 7:0 8:0 9:0 10:0 11:0 12:0 13:66 14:1 
0.2820888881588385 1:26 2:1 3:0 4:0 5:0 6:0 7:0 8:0 9:0 10:0 11:0 12:0 13:26 14:1 
0.2759335095788594 1:20 2:1 3:0 4:0 5:0 6:0 7:0 8:0 9:0 10:0 11:0 12:0 13:20 14:1 
0.3702876513336806 1:13 2:1 3:0 4:0 5:0 6:0 7:0 8:0 9:0 10:0 11:0 12:0 13:13 14:1 
0.1900807515675706 1:6 2:2 3:0 4:0 5:0 6:0 7:0 8:0 9:0 10:0 11:0 12:0 13:6 14:2 
0.08821521276258855 1:6 2:2 3:0 4:0 5:0 6:0 7:0 8:0 9:0 10:0 11:0 12:0 13:5 14:1 
0.4018783225145154 1:17 2:4 3:0 4:0 5:0 6:0 7:0 8:0 9:0 10:0 11:0 12:0 13:17 14:4 
0.144982636212288 1:2 2:2 3:0 4:0 5:0 6:0 7:0 8:0 9:0 10:0 11:0 12:0 13:2 14:2 
0.4585866813849552 1:34 2:2 3:0 4:0 5:0 6:0 7:0 8:0 9:0 10:0 11:33 12:1 13:1 14:1 
0.07144392495828247 1:4 2:3 3:0 4:0 5:0 6:0 7:0 8:0 9:0 10:0 11:0 12:0 13:4 14:3 
0.1601742201016385 1:14 2:5 3:0 4:0 5:0 6:0 7:0 8:0 9:0 10:0 11:0 12:0 13:8 14:3 
0.03899225587665613 1:7 2:5 3:0 4:0 5:0 6:0 7:0 8:0 9:0 10:0 11:0 12:0 13:2 14:2 
0.03174231850453159 1:9 2:9 3:0 4:0 5:0 6:0 7:0 8:0 9:0 10:0 11:0 12:0 13:3 14:3 
0.5197381636230503 1:87 2:7 3:0 4:0 5:0 6:0 7:0 8:0 9:0 10:0 11:0 12:0 13:37 14:3 
0.04487873641135999 1:7 2:7 3:0 4:0 5:0 6:0 7:0 8:0 9:0 10:0 11:0 12:0 13:3 14:3 
0.2211726658862007 1:8 2:8 3:0 4:0 5:0 6:0 7:0 8:0 9:0 10:0 11:0 12:0 13:5 14:5 
0.6414779607397143 1:14 2:7 3:0 4:0 5:0 6:0 7:0 8:0 9:0 10:0 11:0 12:0 13:2 14:2 
0.1043415514106214 1:11 2:9 3:0 4:0 5:0 6:0 7:0 8:0 9:0 10:0 11:0 12:0 13:2 14:2 
0.2435907182073877 1:6 2:5 3:0 4:0 5:0 6:0 7:0 8:0 9:0 10:0 11:0 12:0 13:6 14:5 
0.1418539464964251 1:9 2:8 3:0 4:0 5:0 6:0 7:0 8:0 9:0 10:0 11:2 12:1 13:3 14:3 
0.2436443998128336 1:10 2:2 3:0 4:0 5:0 6:0 7:0 8:0 9:0 10:0 11:6 12:1 13:0 14:0 
0.4051195433007056 1:55 2:3 3:0 4:0 5:0 6:0 7:0 8:0 9:0 10:0 11:28 12:2 13:0 14:0 
0.1623363132966069 1:53 2:2 3:0 4:0 5:0 6:0 7:0 8:0 9:0 10:0 11:27 12:1 13:0 14:0 
0.467244186259483 1:49 2:2 3:0 4:0 5:0 6:0 7:0 8:0 9:0 10:0 11:25 12:1 13:0 14:0 
0.5199411139919795 1:60 2:31 3:0 4:0 5:0 6:0 7:0 8:0 9:0 10:0 11:1 12:1 13:0 14:0 
0.4957769172774549 1:48 2:3 3:0 4:0 5:0 6:0 7:0 8:0 9:0 10:0 11:0 12:0 13:0 14:0 
0.3317920286226116 1:42 2:4 3:0 4:0 5:0 6:0 7:0 8:0 9:0 10:0 11:0 12:0 13:0 14:0 
0.3871657461100734 1:39 2:2 3:0 4:0 5:0 6:0 7:0 8:0 9:0 10:0 11:0 12:0 13:0 14:0 
0.3366111284732184 1:26 2:2 3:0 4:0 5:0 6:0 7:0 8:0 9:0 10:0 11:13 12:1 13:0 14:0 
0.4808687715233457 1:27 2:6 3:0 4:0 5:0 6:0 7:0 8:0 9:0 10:0 11:4 12:2 13:0 14:0 
0.3383615530225854 1:18 2:2 3:0 4:0 5:0 6:0 7:0 8:0 9:0 10:0 11:9 12:1 13:0 14:0 
0.3290301896032766 1:22 2:2 3:0 4:0 5:0 6:0 7:0 8:0 9:0 10:0 11:11 12:1 13:0 14:0 
0.5200726876466124 1:33 2:17 3:0 4:0 5:0 6:0 7:0 8:0 9:0 10:0 11:17 12:16 13:0 14:0 
0.2285762712069851 1:7 2:5 3:0 4:0 5:0 6:0 7:0 8:0 9:0 10:0 11:3 12:3 13:0 14:0 
0.1239763712832429 1:5 2:4 3:0 4:0 5:0 6:0 7:0 8:0 9:0 10:0 11:3 12:3 13:0 14:0 
0.3389680391457252 1:16 2:2 3:0 4:0 5:0 6:0 7:0 8:0 9:0 10:0 11:5 12:1 13:0 14:0 
0.3613016201226195 1:13 2:3 3:0 4:0 5:0 6:0 7:0 8:0 9:0 10:0 11:1 12:1 13:0 14:0 
0.3650515723469058 1:22 2:3 3:0 4:0 5:0 6:0 7:0 8:0 9:0 10:0 11:2 12:1 13:0 14:0 
0.1176275200770438 1:9 2:3 3:0 4:0 5:0 6:0 7:0 8:0 9:0 10:0 11:1 12:1 13:0 14:0 
0.1139595414530712 1:5 2:4 3:0 4:0 5:0 6:0 7:0 8:0 9:0 10:0 11:2 12:2 13:3 14:2 
0.2140656930902833 1:15 2:10 3:0 4:0 5:0 6:0 7:0 8:0 9:0 10:0 11:0 12:0 13:2 14:2 
0.5200016529925673 1:140 2:1 3:0 4:0 5:0 6:0 7:140 8:1 9:0 10:0 11:0 12:0 13:0 14:0 
0.210725713388601 1:14 2:1 3:0 4:0 5:0 6:0 7:14 8:1 9:0 10:0 11:0 12:0 13:0 14:0 
0.5032951313338833 1:34 2:5 3:0 4:0 5:0 6:0 7:0 8:0 9:0 10:0 11:19 12:3 13:0 14:0 
0.4717714170804334 1:8 2:1 3:0 4:0 5:0 6:0 7:8 8:1 9:0 10:0 11:0 12:0 13:0 14:0 
0.498833633840188 1:29 2:1 3:0 4:0 5:0 6:0 7:0 8:0 9:0 10:0 11:0 12:0 13:0 14:0 
0.4177335742345305 1:6 2:1 3:6 4:1 5:0 6:0 7:0 8:0 9:0 10:0 11:0 12:0 13:0 14:0 
0.4484379792244129 1:32 2:26 3:29 4:24 5:1 6:1 7:0 8:0 9:0 10:0 11:0 12:0 13:2 14:1 
0.3340415193156557 1:4 2:1 3:0 4:0 5:0 6:0 7:4 8:1 9:0 10:0 11:0 12:0 13:0 14:0 
0.2079500107364932 1:1 2:1 3:0 4:0 5:1 6:1 7:0 8:0 9:0 10:0 11:0 12:0 13:0 14:0 
0.3273856057229124 1:15 2:1 3:0 4:0 5:0 6:0 7:15 8:1 9:0 10:0 11:0 12:0 13:0 14:0 
0.4179624705994918 1:30 2:2 3:0 4:0 5:0 6:0 7:0 8:0 9:0 10:0 11:15 12:1 13:0 14:0 
0.1028962651711876 1:4 2:2 3:2 4:1 5:2 6:1 7:0 8:0 9:0 10:0 11:0 12:0 13:0 14:0 
0.09420684116349495 1:24 2:2 3:0 4:0 5:0 6:0 7:0 8:0 9:0 10:0 11:24 12:2 13:0 14:0 
0.1246865317925133 1:3 2:3 3:3 4:3 5:0 6:0 7:0 8:0 9:0 10:0 11:0 12:0 13:0 14:0 
0.05901069895083394 1:1 2:1 3:1 4:1 5:0 6:0 7:0 8:0 9:0 10:0 11:0 12:0 13:0 14:0 
0.1065483702032095 1:4 2:4 3:4 4:4 5:0 6:0 7:0 8:0 9:0 10:0 11:0 12:0 13:0 14:0 
0.3473141438928727 1:7 2:1 3:0 4:0 5:0 6:0 7:0 8:0 9:0 10:0 11:7 12:1 13:0 14:0 
0.1595419572790403 1:3 2:1 3:0 4:0 5:0 6:0 7:0 8:0 9:0 10:0 11:3 12:1 13:0 14:0 
0.04380757545137549 1:1 2:1 3:0 4:0 5:0 6:0 7:0 8:0 9:0 10:0 11:1 12:1 13:0 14:0 
0.0390393433809733 1:9 2:8 3:9 4:8 5:0 6:0 7:0 8:0 9:0 10:0 11:0 12:0 13:0 14:0 
0.5195509670269119 1:20 2:11 3:0 4:0 5:0 6:0 7:0 8:0 9:0 10:0 11:17 12:10 13:0 14:0 
0.1973862864131619 1:7 2:7 3:4 4:4 5:0 6:0 7:0 8:0 9:0 10:0 11:0 12:0 13:2 14:2 
0.1596136600238363 1:12 2:9 3:11 4:8 5:0 6:0 7:0 8:0 9:0 10:0 11:0 12:0 13:1 14:1 
0.08222466123899701 1:12 2:12 3:11 4:11 5:0 6:0 7:0 8:0 9:0 10:0 11:0 12:0 13:1 14:1 
0.200108390423158 1:10 2:10 3:10 4:10 5:0 6:0 7:0 8:0 9:0 10:0 11:0 12:0 13:0 14:0 
0.2709352709099088 1:7 2:7 3:7 4:7 5:0 6:0 7:0 8:0 9:0 10:0 11:0 12:0 13:0 14:0 
0.06133352413611353 1:9 2:9 3:9 4:9 5:0 6:0 7:0 8:0 9:0 10:0 11:0 12:0 13:0 14:0 
0.1768347911021542 1:5 2:5 3:5 4:5 5:0 6:0 7:0 8:0 9:0 10:0 11:0 12:0 13:0 14:0 
0.5515061818100944 1:34 2:28 3:27 4:25 5:0 6:0 7:0 8:0 9:0 10:0 11:3 12:1 13:3 14:1 
0.5200240607145847 1:58 2:32 3:47 4:27 5:1 6:1 7:0 8:0 9:0 10:0 11:4 12:1 13:3 14:1 
1 1:16 2:14 3:6 4:6 5:0 6:0 7:9 8:7 9:0 10:0 11:0 12:0 13:1 14:1 
0.1607810761704687 1:23 2:21 3:19 4:18 5:2 6:2 7:0 8:0 9:0 10:0 11:0 12:0 13:2 14:1 
0.3042748943498708 1:14 2:11 3:2 4:2 5:0 6:0 7:9 8:7 9:2 10:1 11:0 12:0 13:1 14:1 
0.1036966487829777 1:14 2:13 3:12 4:11 5:0 6:0 7:2 8:2 9:0 10:0 11:0 12:0 13:0 14:0 
0.1408088620796383 1:15 2:11 3:10 4:8 5:2 6:1 7:0 8:0 9:0 10:0 11:0 12:0 13:0 14:0 
0.1590839422152767 1:15 2:15 3:11 4:11 5:0 6:0 7:0 8:0 9:0 10:0 11:0 12:0 13:3 14:3 
0.6727178532926907 1:16 2:14 3:9 4:9 5:0 6:0 7:6 8:4 9:0 10:0 11:0 12:0 13:1 14:1 
0.4821822629285649 1:26 2:21 3:12 4:12 5:0 6:0 7:9 8:6 9:0 10:0 11:5 12:3 13:0 14:0 
0.3628038264597053 1:28 2:25 3:15 4:13 5:0 6:0 7:9 8:8 9:0 10:0 11:0 12:0 13:4 14:4 
0.6890108367036524 1:22 2:19 3:11 4:11 5:0 6:0 7:9 8:6 9:0 10:0 11:0 12:0 13:2 14:2 
0.1019198599462512 1:15 2:15 3:14 4:14 5:0 6:0 7:0 8:0 9:0 10:0 11:0 12:0 13:1 14:1 
0.7417574356443515 1:18 2:15 3:6 4:6 5:0 6:0 7:9 8:7 9:2 10:1 11:0 12:0 13:1 14:1 
0.1043117313958881 1:18 2:14 3:13 4:12 5:0 6:0 7:0 8:0 9:0 10:0 11:4 12:1 13:0 14:0 
0.488738518992475 1:29 2:24 3:19 4:17 5:0 6:0 7:5 8:3 9:0 10:0 11:0 12:0 13:4 14:3 
0.09515212473918069 1:19 2:18 3:17 4:16 5:0 6:0 7:0 8:0 9:0 10:0 11:0 12:0 13:2 14:2 
0.04598186571116249 1:24 2:19 3:23 4:18 5:0 6:0 7:0 8:0 9:0 10:0 11:0 12:0 13:1 14:1 
0.6108763817580796 1:27 2:20 3:15 4:12 5:0 6:0 7:9 8:6 9:2 10:1 11:0 12:0 13:1 14:1 
0.4477303584087656 1:21 2:20 3:10 4:10 5:0 6:0 7:9 8:8 9:0 10:0 11:0 12:0 13:2 14:2 
0.2858727035978146 1:26 2:18 3:13 4:11 5:0 6:0 7:9 8:5 9:0 10:0 11:0 12:0 13:1 14:1 
0.5494586149363669 1:17 2:12 3:11 4:8 5:3 6:2 7:0 8:0 9:0 10:0 11:1 12:1 13:2 14:1 
0.02362608108171241 1:20 2:15 3:17 4:13 5:0 6:0 7:0 8:0 9:0 10:0 11:0 12:0 13:2 14:1 
0.03100104274158108 1:27 2:22 3:14 4:13 5:0 6:0 7:9 8:6 9:0 10:0 11:0 12:0 13:2 14:1 
0.1684894979207039 1:25 2:18 3:21 4:15 5:1 6:1 7:0 8:0 9:0 10:0 11:0 12:0 13:3 14:2 
0.1575324990374161 1:21 2:17 3:18 4:15 5:0 6:0 7:0 8:0 9:1 10:1 11:0 12:0 13:2 14:1 
0.2444158583494846 1:25 2:23 3:22 4:20 5:0 6:0 7:0 8:0 9:2 10:2 11:0 12:0 13:1 14:1 
0.3847146718978554 1:26 2:26 3:23 4:23 5:0 6:0 7:0 8:0 9:0 10:0 11:0 12:0 13:2 14:2 
0.1266915814392774 1:14 2:9 3:2 4:2 5:0 6:0 7:9 8:5 9:2 10:1 11:0 12:0 13:0 14:0 
0.2368910858136698 1:15 2:15 3:11 4:11 5:2 6:2 7:0 8:0 9:0 10:0 11:0 12:0 13:2 14:2 
0.1298314954051019 1:20 2:16 3:16 4:14 5:2 6:1 7:0 8:0 9:0 10:0 11:0 12:0 13:2 14:1 
0.2057079977920252 1:19 2:14 3:18 4:13 5:1 6:1 7:0 8:0 9:0 10:0 11:0 12:0 13:0 14:0 
0.1860280225370487 1:25 2:17 3:20 4:16 5:0 6:0 7:0 8:0 9:0 10:0 11:0 12:0 13:0 14:0 
0.6964075697511943 1:21 2:18 3:10 4:10 5:0 6:0 7:8 8:5 9:2 10:2 11:0 12:0 13:1 14:1 
0.2203176814364325 1:13 2:9 3:3 4:2 5:0 6:0 7:8 8:5 9:0 10:0 11:1 12:1 13:0 14:0 
0.0997200360841585 1:25 2:21 3:12 4:11 5:0 6:0 7:9 8:6 9:0 10:0 11:1 12:1 13:2 14:2 
0.6900381427185005 1:19 2:14 3:4 4:4 5:0 6:0 7:10 8:8 9:2 10:1 11:0 12:0 13:0 14:0 
1 1:19 2:14 3:3 4:2 5:0 6:0 7:0 8:0 9:2 10:1 11:0 12:0 13:3 14:3 
0.2725472524407807 1:26 2:19 3:22 4:16 5:1 6:1 7:0 8:0 9:0 10:0 11:1 12:1 13:2 14:1 
0.2640475640641771 1:18 2:11 3:14 4:9 5:0 6:0 7:0 8:0 9:0 10:0 11:3 12:1 13:0 14:0 
0.1018797387109733 1:13 2:12 3:12 4:11 5:1 6:1 7:0 8:0 9:0 10:0 11:0 12:0 13:0 14:0 
0.119544726048523 1:19 2:18 3:19 4:18 5:0 6:0 7:0 8:0 9:0 10:0 11:0 12:0 13:0 14:0 
0.2566431197097504 1:21 2:15 3:5 4:5 5:0 6:0 7:9 8:6 9:0 10:0 11:2 12:1 13:1 14:1 
0.2666359660190675 1:21 2:20 3:18 4:18 5:1 6:1 7:0 8:0 9:0 10:0 11:2 12:1 13:0 14:0 
0.1123782727485452 1:17 2:17 3:15 4:15 5:0 6:0 7:0 8:0 9:0 10:0 11:0 12:0 13:2 14:2 
0.07880779133109836 1:15 2:12 3:14 4:11 5:0 6:0 7:0 8:0 9:0 10:0 11:1 12:1 13:0 14:0 
0.2121998279585365 1:25 2:21 3:20 4:18 5:0 6:0 7:0 8:0 9:0 10:0 11:1 12:1 13:4 14:2 
0.6032927822774141 1:19 2:14 3:5 4:5 5:0 6:0 7:10 8:6 9:2 10:1 11:0 12:0 13:1 14:1 
0.5425692979653837 1:18 2:14 3:11 4:11 5:0 6:0 7:0 8:0 9:0 10:0 11:6 12:2 13:1 14:1 
0.1175606663307114 1:19 2:15 3:19 4:15 5:0 6:0 7:0 8:0 9:0 10:0 11:0 12:0 13:0 14:0 
0.1025946761311771 1:24 2:21 3:22 4:19 5:0 6:0 7:1 8:1 9:0 10:0 11:0 12:0 13:0 14:0 
0.1957093239700908 1:19 2:16 3:14 4:14 5:0 6:0 7:5 8:2 9:0 10:0 11:0 12:0 13:0 14:0 
0.06500040281886536 1:15 2:9 3:4 4:3 5:0 6:0 7:7 8:5 9:0 10:0 11:0 12:0 13:0 14:0 
0.529021094889636 1:25 2:16 3:3 4:3 5:0 6:0 7:0 8:0 9:16 10:11 11:0 12:0 13:0 14:0 
0.1279742436589869 1:18 2:18 3:13 4:13 5:1 6:1 7:2 8:2 9:0 10:0 11:0 12:0 13:1 14:1 
0.4704286091833111 1:24 2:21 3:7 4:7 5:2 6:2 7:9 8:6 9:3 10:3 11:0 12:0 13:2 14:2 
0.2768436597919493 1:27 2:21 3:23 4:20 5:0 6:0 7:0 8:0 9:0 10:0 11:0 12:0 13:4 14:1 
0.262495737061694 1:29 2:24 3:16 4:13 5:0 6:0 7:9 8:7 9:0 10:0 11:1 12:1 13:2 14:2 
0.5198442183038574 1:53 2:20 3:15 4:13 5:2 6:1 7:0 8:0 9:0 10:0 11:0 12:0 13:31 14:2 
0.4868720060672385 1:23 2:18 3:8 4:8 5:0 6:0 7:11 8:8 9:0 10:0 11:0 12:0 13:1 14:1 
0.3581506072049765 1:19 2:11 3:14 4:9 5:1 6:1 7:0 8:0 9:0 10:0 11:0 12:0 13:4 14:1 
0.1441183779353478 1:20 2:19 3:20 4:19 5:0 6:0 7:0 8:0 9:0 10:0 11:0 12:0 13:0 14:0 
0.3004842863748327 1:27 2:23 3:24 4:22 5:0 6:0 7:0 8:0 9:0 10:0 11:0 12:0 13:0 14:0 
0.1270422443926569 1:24 2:20 3:19 4:18 5:0 6:0 7:0 8:0 9:0 10:0 11:0 12:0 13:0 14:0 
0.6488227608324849 1:29 2:23 3:15 4:14 5:0 6:0 7:9 8:4 9:2 10:2 11:0 12:0 13:3 14:3 
0.248954633292952 1:18 2:15 3:12 4:11 5:1 6:1 7:0 8:0 9:0 10:0 11:0 12:0 13:2 14:1 
0.2471869760384927 1:24 2:18 3:13 4:12 5:0 6:0 7:11 8:6 9:0 10:0 11:0 12:0 13:0 14:0 
0.3706038994204874 1:15 2:10 3:8 4:8 5:0 6:0 7:0 8:0 9:0 10:0 11:0 12:0 13:6 14:1 
0.265178447576183 1:19 2:14 3:13 4:11 5:0 6:0 7:3 8:1 9:0 10:0 11:0 12:0 13:0 14:0 
0.8179020743624823 1:20 2:17 3:13 4:12 5:0 6:0 7:5 8:3 9:0 10:0 11:0 12:0 13:1 14:1 
0.01297973419079362 1:19 2:18 3:17 4:17 5:0 6:0 7:0 8:0 9:0 10:0 11:0 12:0 13:2 14:1 
0.5175900407392561 1:19 2:10 3:8 4:7 5:0 6:0 7:0 8:0 9:0 10:0 11:10 12:2 13:0 14:0 
0.1518118965135012 1:15 2:11 3:10 4:7 5:0 6:0 7:3 8:2 9:0 10:0 11:1 12:1 13:0 14:0 
0.1285124796444128 1:16 2:13 3:10 4:10 5:0 6:0 7:0 8:0 9:0 10:0 11:0 12:0 13:3 14:2 
0.4803310564021836 1:19 2:10 3:9 4:9 5:0 6:0 7:0 8:0 9:0 10:0 11:0 12:0 13:10 14:1 
0.1838174177167595 1:16 2:10 3:13 4:8 5:0 6:0 7:0 8:0 9:1 10:1 11:0 12:0 13:0 14:0 
0.4122119509768779 1:24 2:24 3:20 4:20 5:0 6:0 7:3 8:3 9:0 10:0 11:0 12:0 13:1 14:1 
0.09159057852631927 1:18 2:14 3:18 4:14 5:0 6:0 7:0 8:0 9:0 10:0 11:0 12:0 13:0 14:0 
0.0494379388227071 1:17 2:12 3:15 4:11 5:0 6:0 7:0 8:0 9:0 10:0 11:0 12:0 13:2 14:1 
0.6099804311288082 1:14 2:14 3:11 4:11 5:2 6:2 7:0 8:0 9:0 10:0 11:0 12:0 13:1 14:1 
1 1:24 2:19 3:19 4:17 5:0 6:0 7:0 8:0 9:0 10:0 11:4 12:1 13:1 14:1 
0.2220778356526517 1:17 2:17 3:14 4:14 5:0 6:0 7:0 8:0 9:0 10:0 11:2 12:2 13:1 14:1 
0.5843056741546863 1:13 2:8 3:6 4:4 5:3 6:2 7:0 8:0 9:0 10:0 11:3 12:1 13:0 14:0 
0.03962836046584963 1:20 2:20 3:19 4:19 5:0 6:0 7:0 8:0 9:0 10:0 11:0 12:0 13:1 14:1 
-1 1:14 2:8 3:3 4:3 5:0 6:0 7:0 8:0 9:0 10:0 11:0 12:0 13:1 14:1 
-1 1:18 2:15 3:7 4:7 5:0 6:0 7:8 8:5 9:2 10:2 11:0 12:0 13:0 14:0 
-0.3460381211715615 1:38 2:28 3:23 4:20 5:2 6:2 7:4 8:2 9:4 10:2 11:0 12:0 13:5 14:2 
-0.8059375123915877 1:14 2:8 3:3 4:3 5:1 6:1 7:0 8:0 9:1 10:1 11:0 12:0 13:0 14:0 
-0.4791929946205258 1:29 2:26 3:17 4:14 5:0 6:0 7:3 8:3 9:7 10:7 11:0 12:0 13:1 14:1 
-0.4978602969102605 1:25 2:18 3:1 4:1 5:1 6:1 7:10 8:7 9:5 10:5 11:0 12:0 13:5 14:1 
-0.6583458424347193 1:13 2:13 3:5 4:5 5:1 6:1 7:0 8:0 9:2 10:2 11:1 12:1 13:0 14:0 
-1 1:42 2:28 3:33 4:23 5:4 6:4 7:0 8:0 9:0 10:0 11:0 12:0 13:5 14:1 
-1 1:18 2:12 3:4 4:4 5:0 6:0 7:0 8:0 9:1 10:1 11:0 12:0 13:1 14:1 
-0.1899058497255151 1:18 2:14 3:5 4:5 5:1 6:1 7:0 8:0 9:6 10:4 11:2 12:2 13:0 14:0 
-0.6196624156714921 1:35 2:30 3:22 4:20 5:1 6:1 7:3 8:3 9:2 10:1 11:0 12:0 13:6 14:4 
-0.5630301020074397 1:30 2:19 3:13 4:13 5:0 6:0 7:9 8:4 9:4 10:1 11:0 12:0 13:0 14:0 
-1 1:24 2:16 3:9 4:9 5:0 6:0 7:0 8:0 9:0 10:0 11:0 12:0 13:3 14:3 
-1 1:18 2:16 3:9 4:9 5:0 6:0 7:0 8:0 9:6 10:4 11:0 12:0 13:1 14:1 
-0.4798883209539939 1:30 2:17 3:3 4:3 5:1 6:1 7:21 8:10 9:2 10:1 11:0 12:0 13:0 14:0 
-0.6671189836656048 1:34 2:29 3:19 4:18 5:0 6:0 7:9 8:8 9:1 10:1 11:0 12:0 13:0 14:0 
-0.280313128361371 1:14 2:13 3:3 4:3 5:0 6:0 7:1 8:1 9:5 10:4 11:1 12:1 13:1 14:1 
-1 1:19 2:14 3:6 4:5 5:0 6:0 7:11 8:8 9:2 10:1 11:0 12:0 13:0 14:0 
-0.3919131877348792 1:71 2:41 3:33 4:26 5:1 6:1 7:19 8:8 9:0 10:0 11:1 12:1 13:2 14:2 
-1 1:12 2:10 3:3 4:3 5:1 6:1 7:2 8:2 9:4 10:2 11:0 12:0 13:1 14:1 
-0.3954078342078373 1:26 2:22 3:19 4:16 5:0 6:0 7:0 8:0 9:0 10:0 11:4 12:3 13:0 14:0 
-1 1:14 2:8 3:3 4:3 5:0 6:0 7:0 8:0 9:0 10:0 11:0 12:0 13:1 14:1 
-0.9050079379428243 1:14 2:8 3:3 4:3 5:0 6:0 7:0 8:0 9:0 10:0 11:0 12:0 13:0 14:0 
-1 1:24 2:18 3:9 4:9 5:0 6:0 7:5 8:3 9:1 10:1 11:0 12:0 13:8 14:4 
-1 1:18 2:15 3:7 4:7 5:0 6:0 7:8 8:5 9:2 10:2 11:0 12:0 13:0 14:0 
-0.9795945546820579 1:38 2:28 3:23 4:20 5:2 6:2 7:4 8:2 9:4 10:2 11:0 12:0 13:5 14:2 
-0.4494855961819804 1:11 2:11 3:3 4:3 5:1 6:1 7:0 8:0 9:0 10:0 11:4 12:4 13:0 14:0 
-1 1:14 2:8 3:3 4:3 5:1 6:1 7:0 8:0 9:1 10:1 11:0 12:0 13:0 14:0 
-0.998510129125364 1:29 2:26 3:17 4:14 5:0 6:0 7:3 8:3 9:7 10:7 11:0 12:0 13:1 14:1 
-0.9824068971948671 1:25 2:18 3:1 4:1 5:1 6:1 7:10 8:7 9:5 10:5 11:0 12:0 13:5 14:1 
-1 1:26 2:22 3:19 4:16 5:0 6:0 7:0 8:0 9:0 10:0 11:4 12:3 13:0 14:0 
-1 1:13 2:13 3:5 4:5 5:1 6:1 7:0 8:0 9:2 10:2 11:1 12:1 13:0 14:0 
-0.5872093216458057 1:20 2:13 3:3 4:3 5:1 6:1 7:2 8:2 9:4 10:2 11:2 12:2 13:0 14:0 
-1 1:42 2:30 3:21 4:16 5:1 6:1 7:8 8:7 9:2 10:2 11:0 12:0 13:3 14:1 
-1 1:18 2:12 3:4 4:4 5:0 6:0 7:0 8:0 9:1 10:1 11:0 12:0 13:1 14:1 
-1 1:18 2:14 3:5 4:5 5:1 6:1 7:0 8:0 9:6 10:4 11:2 12:2 13:0 14:0 
-0.8936647355591867 1:11 2:11 3:4 4:4 5:1 6:1 7:2 8:2 9:0 10:0 11:3 12:3 13:0 14:0 
-1 1:35 2:30 3:22 4:20 5:1 6:1 7:3 8:3 9:2 10:1 11:0 12:0 13:6 14:4 
-0.9977958888928959 1:30 2:19 3:13 4:13 5:0 6:0 7:9 8:4 9:4 10:1 11:0 12:0 13:0 14:0 
-1 1:34 2:28 3:16 4:16 5:0 6:0 7:14 8:8 9:1 10:1 11:0 12:0 13:2 14:2 
-1 1:24 2:16 3:9 4:9 5:0 6:0 7:0 8:0 9:0 10:0 11:0 12:0 13:3 14:3 
-1 1:15 2:13 3:11 4:10 5:2 6:2 7:0 8:0 9:0 10:0 11:0 12:0 13:2 14:1 
-1 1:18 2:16 3:9 4:9 5:0 6:0 7:0 8:0 9:6 10:4 11:0 12:0 13:1 14:1 
-0.9645292196130563 1:14 2:11 3:2 4:2 5:0 6:0 7:1 8:1 9:3 10:2 11:0 12:0 13:1 14:1 
-1 1:30 2:17 3:3 4:3 5:1 6:1 7:21 8:10 9:2 10:1 11:0 12:0 13:0 14:0 
-1 1:34 2:29 3:19 4:18 5:0 6:0 7:9 8:8 9:1 10:1 11:0 12:0 13:0 14:0 
-1 1:14 2:13 3:3 4:3 5:0 6:0 7:1 8:1 9:5 10:4 11:1 12:1 13:1 14:1 
-1 1:19 2:14 3:6 4:5 5:0 6:0 7:11 8:8 9:2 10:1 11:0 12:0 13:0 14:0 
-1 1:71 2:41 3:33 4:26 5:1 6:1 7:19 8:8 9:0 10:0 11:1 12:1 13:2 14:2 
-1 1:12 2:10 3:3 4:3 5:1 6:1 7:2 8:2 9:4 10:2 11:0 12:0 13:1 14:1 
-1 1:19 2:17 3:8 4:8 5:1 6:1 7:10 8:8 9:0 10:0 11:0 12:0 13:0 14:0 
-0.5783004745334228 1:20 2:16 3:11 4:11 5:0 6:0 7:4 8:2 9:4 10:2 11:0 12:0 13:0 14:0 
-1 1:22 2:14 3:7 4:6 5:0 6:0 7:12 8:5 9:2 10:2 11:0 12:0 13:0 14:0 
-0.5970461620485276 1:20 2:17 3:11 4:11 5:0 6:0 7:3 8:3 9:5 10:2 11:0 12:0 13:0 14:0 
-1 1:21 2:19 3:11 4:11 5:0 6:0 7:8 8:6 9:0 10:0 11:0 12:0 13:2 14:2 
-0.4105966370355862 1:11 2:11 3:4 4:4 5:1 6:1 7:0 8:0 9:0 10:0 11:3 12:3 13:0 14:0 
-1 1:13 2:7 3:2 4:2 5:0 6:0 7:0 8:0 9:0 10:0 11:0 12:0 13:0 14:0 
-0.1264515806352313 1:17 2:16 3:5 4:5 5:1 6:1 7:1 8:1 9:5 10:4 11:1 12:1 13:1 14:1 
-0.8070413944133367 1:22 2:16 3:14 4:12 5:0 6:0 7:4 8:2 9:4 10:2 11:0 12:0 13:0 14:0 
-1 1:13 2:12 3:3 4:3 5:0 6:0 7:1 8:1 9:5 10:4 11:0 12:0 13:1 14:1 
-0.8979434946687076 1:18 2:12 3:3 4:3 5:0 6:0 7:0 8:0 9:1 10:1 11:0 12:0 13:1 14:1 
-1 1:16 2:13 3:5 4:5 5:0 6:0 7:10 8:7 9:0 10:0 11:0 12:0 13:1 14:1 
-0.9215672101519774 1:18 2:14 3:2 4:2 5:0 6:0 7:3 8:3 9:3 10:3 11:2 12:2 13:0 14:0 
-1 1:16 2:13 3:6 4:5 5:1 6:1 7:4 8:2 9:4 10:4 11:0 12:0 13:1 14:1 
-1 1:67 2:40 3:29 4:25 5:1 6:1 7:19 8:8 9:0 10:0 11:1 12:1 13:2 14:2 
-1 1:17 2:14 3:6 4:6 5:2 6:2 7:7 8:4 9:1 10:1 11:0 12:0 13:1 14:1 
-0.6963742497494836 1:25 2:19 3:14 4:13 5:2 6:2 7:4 8:2 9:4 10:1 11:0 12:0 13:0 14:0 
-1 1:17 2:14 3:9 4:8 5:0 6:0 7:4 8:2 9:3 10:3 11:0 12:0 13:1 14:1 
-1 1:35 2:21 3:13 4:11 5:0 6:0 7:12 8:7 9:0 10:0 11:0 12:0 13:5 14:2 
-1 1:22 2:18 3:13 4:12 5:0 6:0 7:5 8:3 9:2 10:1 11:0 12:0 13:1 14:1 
-0.6428206278946752 1:19 2:17 3:7 4:7 5:1 6:1 7:5 8:3 9:3 10:3 11:1 12:1 13:0 14:0 
-0.8041354408713006 1:17 2:16 3:7 4:7 5:0 6:0 7:1 8:1 9:5 10:4 11:0 12:0 13:1 14:1 
-0.4666618948009887 1:17 2:15 3:6 4:5 5:0 6:0 7:1 8:1 9:5 10:4 11:1 12:1 13:1 14:1 
-1 1:16 2:15 3:6 4:6 5:0 6:0 7:1 8:1 9:5 10:4 11:0 12:0 13:1 14:1 
-0.7030298283710498 1:23 2:16 3:9 4:9 5:0 6:0 7:0 8:0 9:5 10:2 11:0 12:0 13:3 14:3 
-1 1:19 2:13 3:3 4:3 5:2 6:2 7:0 8:0 9:14 10:8 11:0 12:0 13:0 14:0 
-0.7113842588542547 1:14 2:14 3:4 4:4 5:1 6:1 7:2 8:2 9:0 10:0 11:5 12:5 13:0 14:0 
-1 1:15 2:12 3:7 4:7 5:0 6:0 7:2 8:1 9:4 10:2 11:0 12:0 13:1 14:1 
-1 1:36 2:23 3:14 4:13 5:0 6:0 7:19 8:9 9:0 10:0 11:0 12:0 13:3 14:1 
-1 1:16 2:14 3:4 4:4 5:0 6:0 7:0 8:0 9:9 10:7 11:1 12:1 13:1 14:1 
-1 1:24 2:16 3:9 4:8 5:0 6:0 7:12 8:5 9:2 10:2 11:0 12:0 13:0 14:0 
-0.9952366332731987 1:23 2:16 3:9 4:9 5:0 6:0 7:0 8:0 9:5 10:2 11:0 12:0 13:3 14:3 
-1 1:25 2:21 3:19 4:16 5:0 6:0 7:0 8:0 9:0 10:0 11:4 12:3 13:0 14:0 
-1 1:13 2:13 3:6 4:6 5:0 6:0 7:3 8:3 9:3 10:3 11:0 12:0 13:0 14:0 
-1 1:21 2:14 3:5 4:5 5:1 6:1 7:0 8:0 9:3 10:2 11:5 12:4 13:0 14:0 
-1 1:24 2:20 3:19 4:16 5:0 6:0 7:0 8:0 9:0 10:0 11:3 12:2 13:0 14:0 
-1 1:24 2:20 3:19 4:16 5:0 6:0 7:0 8:0 9:0 10:0 11:3 12:2 13:0 14:0 
-1 1:26 2:18 3:10 4:9 5:2 6:1 7:9 8:6 9:2 10:1 11:0 12:0 13:0 14:0 
-1 1:12 2:9 3:5 4:4 5:0 6:0 7:4 8:3 9:3 10:2 11:0 12:0 13:0 14:0 
-0.190171850986864 1:11 2:11 3:3 4:3 5:1 6:1 7:2 8:2 9:0 10:0 11:4 12:4 13:0 14:0 
-1 1:17 2:17 3:1 4:1 5:0 6:0 7:3 8:3 9:5 10:5 11:0 12:0 13:3 14:3 
-1 1:70 2:39 3:14 4:13 5:0 6:0 7:29 8:9 9:18 10:13 11:0 12:0 13:9 14:4 
-1 1:37 2:25 3:14 4:13 5:0 6:0 7:19 8:9 9:2 10:2 11:0 12:0 13:2 14:1 
-1 1:14 2:14 3:3 4:3 5:1 6:1 7:0 8:0 9:0 10:0 11:6 12:6 13:0 14:0 
-1 1:18 2:11 3:2 4:2 5:0 6:0 7:3 8:3 9:3 10:1 11:0 12:0 13:5 14:1 
-1 1:32 2:28 3:25 4:22 5:0 6:0 7:0 8:0 9:0 10:0 11:4 12:3 13:0 14:0 
-1 1:13 2:12 3:5 4:5 5:1 6:1 7:0 8:0 9:0 10:0 11:1 12:1 13:0 14:0 
-0.03104484806836832 1:37 2:25 3:14 4:13 5:0 6:0 7:19 8:9 9:1 10:1 11:0 12:0 13:2 14:1 
-1 1:23 2:14 3:4 4:4 5:0 6:0 7:0 8:0 9:1 10:1 11:0 12:0 13:5 14:2 
-0.965021023286145 1:25 2:19 3:13 4:12 5:2 6:2 7:4 8:2 9:4 10:1 11:0 12:0 13:1 14:1 
-1 1:23 2:11 3:1 4:1 5:1 6:1 7:0 8:0 9:6 10:3 11:3 12:2 13:0 14:0 
-1 1:20 2:15 3:10 4:9 5:0 6:0 7:0 8:0 9:0 10:0 11:2 12:2 13:2 14:1 
-1 1:16 2:13 3:7 4:6 5:1 6:1 7:5 8:3 9:2 10:2 11:0 12:0 13:0 14:0 
-1 1:70 2:42 3:51 4:33 5:2 6:1 7:10 8:6 9:1 10:1 11:0 12:0 13:6 14:1 
-1 1:56 2:36 3:36 4:25 5:5 6:5 7:9 8:5 9:0 10:0 11:0 12:0 13:6 14:1 
-1 1:19 2:17 3:8 4:8 5:1 6:1 7:10 8:8 9:0 10:0 11:0 12:0 13:0 14:0 
-1 1:59 2:16 3:2 4:2 5:0 6:0 7:10 8:7 9:0 10:0 11:1 12:1 13:33 14:2 
-1 1:18 2:14 3:7 4:7 5:0 6:0 7:5 8:4 9:2 10:2 11:4 12:1 13:0 14:0 
-1 1:45 2:35 3:23 4:23 5:1 6:1 7:15 8:7 9:0 10:0 11:0 12:0 13:4 14:3 
-1 1:85 2:25 3:36 4:11 5:6 6:2 7:20 8:8 9:3 10:1 11:0 12:0 13:15 14:2 
-1 1:16 2:13 3:5 4:5 5:0 6:0 7:10 8:7 9:0 10:0 11:0 12:0 13:1 14:1 
-1 1:25 2:15 3:13 4:10 5:0 6:0 7:0 8:0 9:0 10:0 11:4 12:2 13:6 14:1 
-1 1:69 2:50 3:37 4:33 5:6 6:4 7:9 8:5 9:0 10:0 11:1 12:1 13:13 14:5 
-1 1:74 2:18 3:27 4:9 5:3 6:1 7:12 8:3 9:6 10:2 11:5 12:1 13:0 14:0 
-1 1:22 2:14 3:2 4:2 5:0 6:0 7:2 8:2 9:6 10:3 11:0 12:0 13:8 14:4 
-1 1:29 2:24 3:14 4:13 5:2 6:2 7:8 8:5 9:3 10:3 11:0 12:0 13:2 14:1 
-0.870289789320297 1:86 2:18 3:31 4:8 5:4 6:1 7:16 8:3 9:8 10:2 11:3 12:1 13:0 14:0 
-1 1:67 2:19 3:27 4:9 5:3 6:1 7:12 8:3 9:6 10:2 11:5 12:1 13:0 14:0 
-1 1:50 2:19 3:18 4:8 5:3 6:1 7:8 8:3 9:4 10:2 11:3 12:2 13:0 14:0 
-0.8709373142250616 1:84 2:18 3:30 4:8 5:4 6:1 7:16 8:3 9:8 10:2 11:3 12:1 13:0 14:0 
